    0.100157851112552443E+01    0.547319211931713819E-03   -0.382249625461754150E+12
    0.145274365041547182E+01    0.793859790351331097E-03   -0.382249625461133789E+12
    0.105488478701867106E+01    0.576447638560076783E-03   -0.382249625460695923E+12
    0.974278976014757880E+00    0.532400162219216723E-03   -0.382249625460354370E+12
    0.103710190469918495E+01    0.566730131948259708E-03   -0.382249625459752441E+12
    0.114844780809988833E+01    0.627575725239205178E-03   -0.382249625459717285E+12
    0.765975177587450151E+00    0.418571418558208181E-03   -0.382249625459704346E+12
    0.134858952639920227E+01    0.736945509201811060E-03   -0.382249625459136597E+12
    0.115021155731965496E+01    0.628539573743565360E-03   -0.382249625459102173E+12
    0.512100793028039014E+00    0.279840798406619739E-03   -0.382249625458881958E+12
    0.112774921357972691E+01    0.616265866119097621E-03   -0.382249625458834473E+12
    0.149708838539150202E+01    0.818092393872779417E-03   -0.382249625458787109E+12
    0.124481119083843961E+01    0.680235128636575738E-03   -0.382249625458647522E+12
    0.114041564891622738E+01    0.623187499919781985E-03   -0.382249625458508911E+12
    0.117964748003289577E+01    0.644625981022545766E-03   -0.382249625458418152E+12
    0.996361330114863164E+00    0.544468078539174505E-03   -0.382249625458375610E+12
    0.143134230891783654E+01    0.782166233831785036E-03   -0.382249625458290100E+12
    0.583623331027724568E+00    0.318924731009145737E-03   -0.382249625458252747E+12
    0.137768778069985531E+01    0.752846361715103448E-03   -0.382249625458183838E+12
    0.920242516980642966E+00    0.502871751626599722E-03   -0.382249625458130615E+12
    0.116611345690015500E+01    0.637230204144700408E-03   -0.382249625458109497E+12
    0.463552792092645161E+00    0.253311405971027616E-03   -0.382249625458079346E+12
    0.145277151867837140E+01    0.793875271011711538E-03   -0.382249625457910034E+12
    0.117798976801708033E+01    0.643720072111881865E-03   -0.382249625457867920E+12
    0.103888356159783823E+01    0.567704591509156148E-03   -0.382249625457854248E+12
    0.117627692076725054E+01    0.642784073001247168E-03   -0.382249625457833496E+12
    0.114534713872750471E+01    0.625881478002916769E-03   -0.382249625457775085E+12
    0.137324909861139699E+01    0.750419805679163033E-03   -0.382249625457758545E+12
    0.144182757105405779E+01    0.787894904320168149E-03   -0.382249625457747803E+12
    0.135839045775743239E+01    0.742300218691134095E-03   -0.382249625457736145E+12
    0.769944293756711917E+00    0.420740454392760194E-03   -0.382249625457724976E+12
    0.117363477670358840E+01    0.641339424569154349E-03   -0.382249625457707886E+12
    0.375458411877077181E+00    0.205171655555728738E-03   -0.382249625457701050E+12
    0.588292813656485891E+00    0.321476378427568046E-03   -0.382249625457699158E+12
    0.124935933228102791E+01    0.682720411774513950E-03   -0.382249625457669434E+12
    0.502507426165438309E+00    0.274598401595407024E-03   -0.382249625457641052E+12
    0.133022604997967853E+01    0.726909626117327773E-03   -0.382249625457640869E+12
    0.920675772215931554E+00    0.503108538292039464E-03   -0.382249625457614868E+12
    0.633830315356263219E+00    0.346360632545257747E-03   -0.382249625457574646E+12
    0.209987270168489726E+00    0.114748887487388083E-03   -0.382249625457555786E+12
    0.998348962098751014E+00    0.545554178181923604E-03   -0.382249625457547791E+12
    0.135607526025592739E+01    0.741035087916816428E-03   -0.382249625457504700E+12
    0.272615187979223961E+00    0.148972312536049107E-03   -0.382249625457484741E+12
    0.130574739162905051E+01    0.713534008445097854E-03   -0.382249625457458496E+12
    0.133966076691199754E+01    0.732066187677261719E-03   -0.382249625457443604E+12
    0.149795438063528108E+01    0.818565754136514026E-03   -0.382249625457424072E+12
    0.122289204630856774E+01    0.668256368595317347E-03   -0.382249625457389954E+12
    0.508604313358340665E+00    0.277930074830224228E-03   -0.382249625457373535E+12
    0.101228657536450117E+01    0.553169809656590202E-03   -0.382249625457285767E+12
    0.139489728675300828E+01    0.762250519452373817E-03   -0.382249625457275269E+12
    0.147015963157192298E+01    0.803378104417557925E-03   -0.382249625457244873E+12
    0.962697600403601972E+00    0.526072239242778841E-03   -0.382249625457208923E+12
    0.113727084037943316E+01    0.621468187160661772E-03   -0.382249625457188660E+12
    0.112334780452404392E+01    0.613859865156238227E-03   -0.382249625457177673E+12
    0.572631985383470710E+00    0.312918395338786747E-03   -0.382249625457150757E+12
    0.408179524323668053E+00    0.223052048476886301E-03   -0.382249625457144470E+12
    0.110392477256412458E+01    0.603246041509785942E-03   -0.382249625457133484E+12
    0.103033020472068548E+01    0.563029866788079076E-03   -0.382249625457131348E+12
    0.270201415282477597E+00    0.147653283665139423E-03   -0.382249625457124817E+12
    0.110882119964361148E+01    0.605922403698651822E-03   -0.382249625457120850E+12
    0.697574922494432759E+00    0.381193830385376231E-03   -0.382249625457103027E+12
    0.114964609614090763E+01    0.628231425568366825E-03   -0.382249625457090942E+12
    0.472891733201345366E+00    0.258414410448042791E-03   -0.382249625457057251E+12
    0.755782599875080119E+00    0.413002208285045882E-03   -0.382249625457037964E+12
    0.123360414032848453E+01    0.674110087695512211E-03   -0.382249625457034058E+12
    0.142575666951889257E+01    0.779112945450702310E-03   -0.382249625457021667E+12
    0.142600077677536863E+01    0.779246340492095822E-03   -0.382249625457011108E+12
    0.826912671894870055E+00    0.451871194127171922E-03   -0.382249625457007507E+12
    0.107235709745447005E+01    0.585995715441697926E-03   -0.382249625456998962E+12
    0.257318819263090970E+00    0.140613504306925799E-03   -0.382249625456992065E+12
    0.116418613412502392E+01    0.636176225836378585E-03   -0.382249625456955688E+12
    0.716153749124108896E+00    0.391346765514023255E-03   -0.382249625456948303E+12
    0.138959317877296318E+01    0.759352019417560038E-03   -0.382249625456944946E+12
    0.900407904465010844E+00    0.492033618226112241E-03   -0.382249625456935791E+12
    0.124930678692802122E+01    0.682690900319227818E-03   -0.382249625456927246E+12
    0.119866654207740919E+01    0.655018247562582463E-03   -0.382249625456915649E+12
    0.915384915434872326E+00    0.500217899065975922E-03   -0.382249625456910522E+12
    0.130522724118451094E+01    0.713249712471597996E-03   -0.382249625456903931E+12
    0.555421840974316239E+00    0.303513790868964602E-03   -0.382249625456896484E+12
    0.109608770788316812E+01    0.598963453656329507E-03   -0.382249625456895264E+12
    0.126669917187724868E+01    0.692195073200579437E-03   -0.382249625456891357E+12
    0.116098064430226766E+01    0.634424574540121068E-03   -0.382249625456882324E+12
    0.399443741564395549E+00    0.218278338664124792E-03   -0.382249625456870422E+12
    0.146647703617103753E+01    0.801365682088222555E-03   -0.382249625456866882E+12
    0.606900954000854309E+00    0.331644876989830608E-03   -0.382249625456857666E+12
    0.738924551900479454E+00    0.403790009418726929E-03   -0.382249625456852722E+12
    0.134811884103912538E+01    0.736688090944695559E-03   -0.382249625456828857E+12
    0.988546379083715454E+00    0.540196879894545303E-03   -0.382249625456823853E+12
    0.303576614435821845E+00    0.165891195149669524E-03   -0.382249625456809937E+12
    0.442432956684434553E+00    0.241770046132520531E-03   -0.382249625456799683E+12
    0.129724879755557110E+01    0.708889102749922593E-03   -0.382249625456798462E+12
    0.131811048961124966E+01    0.720289096086016139E-03   -0.382249625456788452E+12
    0.148931334317413189E+01    0.813844714244648759E-03   -0.382249625456767578E+12
    0.142801508258119969E+01    0.780347891285709653E-03   -0.382249625456767456E+12
    0.849085200500197868E+00    0.463987518422656218E-03   -0.382249625456752502E+12
    0.118661416839297118E+01    0.648432176029185587E-03   -0.382249625456742554E+12
    0.120139821693313564E+01    0.656511664598561436E-03   -0.382249625456726074E+12
    0.393533317141748329E+00    0.215048773341878889E-03   -0.382249625456719849E+12
    0.461863840209350340E+00    0.252388420274422777E-03   -0.382249625456716797E+12
    0.133477708571267240E+01    0.729397390884110571E-03   -0.382249625456715149E+12
    0.276342152525677009E+00    0.151008768365488966E-03   -0.382249625456714905E+12
    0.148046522678373682E+01    0.809009595929646849E-03   -0.382249625456698364E+12
    0.107627303808623376E+01    0.588135632127160558E-03   -0.382249625456690247E+12
    0.121937700411747985E+01    0.666336281001859813E-03   -0.382249625456673523E+12
    0.995514640701146813E+00    0.544004740709441324E-03   -0.382249625456664062E+12
    0.117798168358507160E+01    0.643715544055285848E-03   -0.382249625456654175E+12
    0.143622652777786119E+01    0.784834305000767685E-03   -0.382249625456654053E+12
    0.126861295217254000E+01    0.693240896433222707E-03   -0.382249625456648193E+12
    0.121843400070090024E+01    0.665820317816018638E-03   -0.382249625456647339E+12
    0.114541853534551397E+01    0.625920594058493557E-03   -0.382249625456645020E+12
    0.104908764904713170E+01    0.573280582363634435E-03   -0.382249625456643555E+12
    0.375746387102746049E+00    0.205328790095593995E-03   -0.382249625456640259E+12
    0.873914162044092668E+00    0.477555457184404434E-03   -0.382249625456635620E+12
    0.762719894148969679E+00    0.416792705510722139E-03   -0.382249625456631897E+12
    0.108659216531939196E+01    0.593774584668050123E-03   -0.382249625456631897E+12
    0.121098201778539893E+01    0.661748781923810186E-03   -0.382249625456622070E+12
    0.517696272998499074E+00    0.282898400839277366E-03   -0.382249625456591064E+12
    0.508733169654935979E+00    0.278000456296958803E-03   -0.382249625456589722E+12
    0.225041572430375647E+00    0.122975272132997961E-03   -0.382249625456586426E+12
    0.714441121264371315E+00    0.390410865755867818E-03   -0.382249625456574829E+12
    0.989839451874174658E+00    0.540903509690954178E-03   -0.382249625456567505E+12
    0.897144586122088361E+00    0.490249863257301690E-03   -0.382249625456560303E+12
    0.125275235719287870E+01    0.684573792956518976E-03   -0.382249625456557129E+12
    0.115984358364851103E+01    0.633803853576252597E-03   -0.382249625456551270E+12
    0.135690299660724056E+01    0.741487514849359201E-03   -0.382249625456550903E+12
    0.139193218700445298E+01    0.760630136042608589E-03   -0.382249625456543213E+12
    0.875401718196760048E+00    0.478368798351311178E-03   -0.382249625456540405E+12
    0.101340306272052572E+01    0.553779985993516121E-03   -0.382249625456520508E+12
    0.123791703024048960E+01    0.676467577225984174E-03   -0.382249625456513184E+12
    0.704239970837113871E+00    0.384836020716952296E-03   -0.382249625456507935E+12
    0.157542187886784757E+00    0.860899229764261042E-04   -0.382249625456493530E+12
    0.144252612839411531E+01    0.788277506332573405E-03   -0.382249625456480957E+12
    0.886101716484373192E+00    0.484215430198923656E-03   -0.382249625456475952E+12
    0.105477878111591350E+01    0.576390519916109164E-03   -0.382249625456466187E+12
    0.570134801423978432E+00    0.311553474893550540E-03   -0.382249625456460938E+12
    0.113594761890429630E+01    0.620745177442592541E-03   -0.382249625456452881E+12
    0.120759984008730159E+01    0.659899950433752241E-03   -0.382249625456449890E+12
    0.113113634589219214E+01    0.618116030421743943E-03   -0.382249625456443115E+12
    0.793639765745325798E+00    0.433689454509385655E-03   -0.382249625456429626E+12
    0.133888793931554995E+01    0.731643756771723657E-03   -0.382249625456426636E+12
    0.651721643325833933E+00    0.356137081250761296E-03   -0.382249625456420898E+12
    0.115761938454117042E+01    0.632587843566682971E-03   -0.382249625456418945E+12
    0.115720669383284602E+01    0.632362892475577844E-03   -0.382249625456408081E+12
    0.536331732778041803E+00    0.293081856179753337E-03   -0.382249625456407166E+12
    0.135152182532639742E+01    0.738547620464464301E-03   -0.382249625456404297E+12
    0.599003391755905112E+00    0.327329178932433279E-03   -0.382249625456401245E+12
    0.137603659245296184E+01    0.751943200117555807E-03   -0.382249625456394653E+12
    0.615323252978252855E+00    0.336246971589589604E-03   -0.382249625456382202E+12
    0.125316089224329819E+01    0.684797061011708716E-03   -0.382249625456378540E+12
    0.121499664071400337E+01    0.663942569518412729E-03   -0.382249625456377380E+12
    0.149169925570764272E+01    0.815147737880031714E-03   -0.382249625456377014E+12
    0.109496585336069097E+01    0.598350989376724633E-03   -0.382249625456376343E+12
    0.135401096379459451E+01    0.739907817048716596E-03   -0.382249625456339600E+12
    0.261204744729835014E+00    0.142736977444437885E-03   -0.382249625456337524E+12
    0.123867839502816834E+01    0.676883023268256548E-03   -0.382249625456322021E+12
    0.128355492072612209E+01    0.701406062799040720E-03   -0.382249625456316772E+12
    0.456907946104193718E+00    0.249680009051918023E-03   -0.382249625456305420E+12
    0.456907946104193718E+00    0.249680009051918023E-03   -0.382249625456305420E+12
    0.131824505201802178E+01    0.720362689642468782E-03   -0.382249625456298218E+12
    0.136027103396686422E+01    0.743328035421478273E-03   -0.382249625456276611E+12
    0.105269288192162724E+01    0.575250163168858223E-03   -0.382249625456260498E+12
    0.107706561928353728E+01    0.588569280770396023E-03   -0.382249625456260010E+12
    0.135209603023836378E+01    0.738860760756107453E-03   -0.382249625456250122E+12
    0.795667567894940975E+00    0.434797544575040232E-03   -0.382249625456242920E+12
    0.620136035126178320E+00    0.338876954277822343E-03   -0.382249625456228638E+12
    0.853257061737982325E+00    0.466267683942208939E-03   -0.382249625456225586E+12
    0.907898268082842463E+00    0.496126713508316395E-03   -0.382249625456214844E+12
    0.907898268082842463E+00    0.496126713508316395E-03   -0.382249625456214844E+12
    0.100958522944059759E+01    0.551693740659636072E-03   -0.382249625456209351E+12
    0.614287113775793703E+00    0.335680778621775871E-03   -0.382249625456205383E+12
    0.780427472195334593E+00    0.426469495012414372E-03   -0.382249625456201843E+12
    0.109821172637972642E+01    0.600124695669446476E-03   -0.382249625456189819E+12
    0.107456045645298515E+01    0.587200310003030152E-03   -0.382249625456184204E+12
    0.128891679572687101E+01    0.704336677363226232E-03   -0.382249625456180969E+12
    0.111331652763372935E+01    0.608378808031824632E-03   -0.382249625456180298E+12
    0.808209096311863995E+00    0.441650580085308484E-03   -0.382249625456179565E+12
    0.146481265692446927E+01    0.800456074656684651E-03   -0.382249625456176758E+12
    0.805950268535218228E+00    0.440416584923085288E-03   -0.382249625456173584E+12
    0.805950268535218228E+00    0.440416584923085288E-03   -0.382249625456173584E+12
    0.531694501105018591E+00    0.290547566719846664E-03   -0.382249625456148315E+12
    0.423697270337426879E+00    0.231531849009820770E-03   -0.382249625456147217E+12
    0.923145290279213659E+00    0.504458137797777584E-03   -0.382249625456146729E+12
    0.123844733319670208E+01    0.676757317815060455E-03   -0.382249625456145996E+12
    0.997030370909180785E+00    0.544833072038210893E-03   -0.382249625456144836E+12
    0.140158283240958048E+01    0.765903732937888511E-03   -0.382249625456131592E+12
    0.877331586528715568E+00    0.479423349154022948E-03   -0.382249625456120605E+12
    0.104412270711721300E+01    0.570567403248018758E-03   -0.382249625456120117E+12
    0.135481201613073488E+01    0.740345525065061851E-03   -0.382249625456119385E+12
    0.105832955752453550E+01    0.578330824324204654E-03   -0.382249625456108032E+12
    0.148481520273879974E+01    0.811385950802752799E-03   -0.382249625456102051E+12
    0.148481520273879974E+01    0.811385950802752799E-03   -0.382249625456102051E+12
    0.109321462371513056E+01    0.597393524706053879E-03   -0.382249625456098816E+12
    0.116686146858295059E+01    0.637638765940552136E-03   -0.382249625456093994E+12
    0.116686146858295059E+01    0.637638765940552136E-03   -0.382249625456093994E+12
    0.126664103873440403E+01    0.692163404418488369E-03   -0.382249625456092163E+12
    0.126664103873440403E+01    0.692163404418488369E-03   -0.382249625456092163E+12
    0.141112238099861731E+01    0.771116672574960861E-03   -0.382249625456090881E+12
    0.139344290483942701E+01    0.761455027991326670E-03   -0.382249625456078857E+12
    0.148353514365487449E+01    0.810686459396874298E-03   -0.382249625456076538E+12
    0.133967565442804970E+01    0.732073600365612228E-03   -0.382249625456072815E+12
    0.428633729411387665E+00    0.234229587856710979E-03   -0.382249625456070068E+12
    0.130711715653524951E+01    0.714281820729890287E-03   -0.382249625456059387E+12
    0.133678587506256585E+01    0.730495017268212960E-03   -0.382249625456055054E+12
    0.542785998746821652E+00    0.296608809805635326E-03   -0.382249625456053284E+12
    0.146659291632238942E+01    0.801428284518870999E-03   -0.382249625456051025E+12
    0.575737805032487726E+00    0.314615530340297417E-03   -0.382249625456046265E+12
    0.575737805032487726E+00    0.314615530340297417E-03   -0.382249625456046265E+12
    0.116687987638803414E+01    0.637648340112159347E-03   -0.382249625456045410E+12
    0.130756136453842364E+01    0.714524564246208369E-03   -0.382249625456036987E+12
    0.130756136453842364E+01    0.714524564246208369E-03   -0.382249625456036987E+12
    0.653807719309058899E+00    0.357277323201144750E-03   -0.382249625456035095E+12
    0.965340434556724025E+00    0.527516326548256652E-03   -0.382249625456034058E+12
    0.106070232367943151E+01    0.579627428071233936E-03   -0.382249625456033630E+12
    0.123281612753063818E+01    0.673680094070441284E-03   -0.382249625456032959E+12
    0.123281612753063818E+01    0.673680094070441284E-03   -0.382249625456032959E+12
    0.769205807704130495E+00    0.420337018522703076E-03   -0.382249625456029175E+12
    0.992027159749872767E+00    0.542099051665739275E-03   -0.382249625456026245E+12
    0.115867754872483353E+01    0.633166133146259320E-03   -0.382249625456023621E+12
    0.115867754872483353E+01    0.633166133146259320E-03   -0.382249625456023621E+12
    0.138269368397696146E+01    0.755581621928451300E-03   -0.382249625456023560E+12
    0.138269368397696146E+01    0.755581621928451300E-03   -0.382249625456023560E+12
    0.525468272202398445E+00    0.287145427541150367E-03   -0.382249625456019775E+12
    0.124378010034314368E+01    0.679670921562527735E-03   -0.382249625456019409E+12
    0.958766595485618378E+00    0.523924008410358395E-03   -0.382249625456011414E+12
    0.718897364598455435E+00    0.392845677405693453E-03   -0.382249625456003052E+12
    0.104947275214724778E+01    0.573490535166354116E-03   -0.382249625456001831E+12
    0.115944726698967981E+01    0.633587214522622231E-03   -0.382249625455988770E+12
    0.115944726698967981E+01    0.633587214522622231E-03   -0.382249625455988770E+12
    0.125250206479711190E+01    0.684437094873239886E-03   -0.382249625455988159E+12
    0.125250206479711190E+01    0.684437094873239886E-03   -0.382249625455988159E+12
    0.136076904099023377E+01    0.743600219697121683E-03   -0.382249625455981689E+12
    0.136076904099023377E+01    0.743600219697121683E-03   -0.382249625455981689E+12
    0.491775201981673904E+00    0.268733636046035234E-03   -0.382249625455981201E+12
    0.491775201981673904E+00    0.268733636046035234E-03   -0.382249625455981201E+12
    0.958274396918804561E+00    0.523655037208495765E-03   -0.382249625455958496E+12
    0.958274396918804561E+00    0.523655037208495765E-03   -0.382249625455958496E+12
    0.989431876154429180E+00    0.540681235643329606E-03   -0.382249625455950806E+12
    0.106572478774164825E+01    0.582371973570429500E-03   -0.382249625455945801E+12
    0.544078241626044568E+00    0.297314956758833529E-03   -0.382249625455943542E+12
    0.100163918039766875E+01    0.547351607461493824E-03   -0.382249625455938293E+12
    0.641014646192430537E+00    0.350286215090916757E-03   -0.382249625455933472E+12
    0.641014646192430537E+00    0.350286215090916757E-03   -0.382249625455933472E+12
    0.133662126075390986E+01    0.730404532559645182E-03   -0.382249625455928223E+12
    0.729875990942872033E+00    0.398845296777986295E-03   -0.382249625455924927E+12
    0.729875990942872033E+00    0.398845296777986295E-03   -0.382249625455924927E+12
    0.144256407236695261E+01    0.788298152785818929E-03   -0.382249625455923889E+12
    0.984825090367737577E+00    0.538163451255586206E-03   -0.382249625455922729E+12
    0.125586914520800685E+01    0.686277542684110976E-03   -0.382249625455921387E+12
    0.134298210510334792E+01    0.733880455419594737E-03   -0.382249625455915771E+12
    0.249634217979810391E+00    0.136414177861047734E-03   -0.382249625455903076E+12
    0.142092601648938177E+01    0.776473366384972563E-03   -0.382249625455899353E+12
    0.142092601648938177E+01    0.776473366384972563E-03   -0.382249625455899353E+12
    0.187745613767942965E+00    0.102594763360701731E-03   -0.382249625455898254E+12
    0.846251379663550019E+00    0.462439351649581126E-03   -0.382249625455891724E+12
    0.937896479551896034E+00    0.512519388746943833E-03   -0.382249625455890930E+12
    0.114949472287675469E+01    0.628148570208886107E-03   -0.382249625455890259E+12
    0.114949472287675469E+01    0.628148570208886107E-03   -0.382249625455890259E+12
    0.736072766397571243E+00    0.402231287159242530E-03   -0.382249625455886597E+12
    0.929982944289542868E+00    0.508194643185932039E-03   -0.382249625455884766E+12
    0.127274305767754514E+01    0.695497920766657146E-03   -0.382249625455884521E+12
    0.127274305767754514E+01    0.695497920766657146E-03   -0.382249625455884521E+12
    0.142717430317728700E+01    0.779888308604874468E-03   -0.382249625455877197E+12
    0.142717430317728700E+01    0.779888308604874468E-03   -0.382249625455877197E+12
    0.103123552368029636E+01    0.563524711297430062E-03   -0.382249625455875244E+12
    0.124478721803611925E+01    0.680221746595766497E-03   -0.382249625455873596E+12
    0.309113646958298238E+00    0.168917082172268944E-03   -0.382249625455872925E+12
    0.769085651848732454E+00    0.420271374484439879E-03   -0.382249625455865479E+12
    0.982067735776855910E+00    0.536656687586286240E-03   -0.382249625455853149E+12
    0.140837182377862558E+01    0.769613571541866073E-03   -0.382249625455851562E+12
    0.895903942100077844E+00    0.489571976451745909E-03   -0.382249625455849365E+12
    0.895903942100077844E+00    0.489571976451745909E-03   -0.382249625455849365E+12
    0.115293006832957534E+01    0.630025414365622855E-03   -0.382249625455848694E+12
    0.115293006832957534E+01    0.630025414365622855E-03   -0.382249625455848694E+12
    0.420465748182650478E+00    0.229765980591101204E-03   -0.382249625455841370E+12
    0.420465748182650478E+00    0.229765980591101204E-03   -0.382249625455841370E+12
    0.699311049274122132E+00    0.382142885547887055E-03   -0.382249625455839600E+12
    0.787628698678362493E+00    0.430404616000998428E-03   -0.382249625455839233E+12
    0.969171592595670983E+00    0.529609862663335627E-03   -0.382249625455837158E+12
    0.802237145500299453E+00    0.438387491470091230E-03   -0.382249625455826111E+12
    0.802237145500299453E+00    0.438387491470091230E-03   -0.382249625455826111E+12
    0.128963260841477956E+01    0.704727781106758095E-03   -0.382249625455821533E+12
    0.128963260841477956E+01    0.704727781106758095E-03   -0.382249625455821533E+12
    0.120071891067326808E+01    0.656139913189272925E-03   -0.382249625455818359E+12
    0.120071891067326808E+01    0.656139913189272925E-03   -0.382249625455818359E+12
    0.910001758072411349E+00    0.497275814784432020E-03   -0.382249625455817749E+12
    0.831805515093027581E+00    0.454545018395717017E-03   -0.382249625455811951E+12
    0.937113421553738113E+00    0.512091471611630933E-03   -0.382249625455809937E+12
    0.144101775969634316E+01    0.787452635062547372E-03   -0.382249625455808228E+12
    0.133769337178255499E+01    0.730990415610861094E-03   -0.382249625455806152E+12
    0.133769337178255499E+01    0.730990415610861094E-03   -0.382249625455806152E+12
    0.455264721748769863E+00    0.248782245110691419E-03   -0.382249625455803223E+12
    0.897520251192259533E+00    0.490455223728663084E-03   -0.382249625455803162E+12
    0.470514827860266549E+00    0.257115760625177732E-03   -0.382249625455802734E+12
    0.126062421670817604E+01    0.688875960740795330E-03   -0.382249625455799683E+12
    0.126062421670817604E+01    0.688875960740795330E-03   -0.382249625455799683E+12
    0.141830399534709506E+01    0.775040567321367679E-03   -0.382249625455795715E+12
    0.135308831965780008E+01    0.739403077723964765E-03   -0.382249625455794312E+12
    0.135308831965780008E+01    0.739403077723964765E-03   -0.382249625455794312E+12
    0.549095041929983263E+00    0.300056407555179643E-03   -0.382249625455791382E+12
    0.126872873878867276E+01    0.693304725543108179E-03   -0.382249625455789612E+12
    0.767457811772163101E+00    0.419381839853880101E-03   -0.382249625455787842E+12
    0.144861976639472378E+01    0.791606800990519175E-03   -0.382249625455785400E+12
    0.144861976639472378E+01    0.791606800990519175E-03   -0.382249625455785400E+12
    0.870193831898450343E+00    0.475522543716494657E-03   -0.382249625455781555E+12
    0.870193831898450343E+00    0.475522543716494657E-03   -0.382249625455781555E+12
    0.121352983839312456E+01    0.663140940939257496E-03   -0.382249625455780762E+12
    0.361121200332522041E+00    0.197336806587535094E-03   -0.382249625455778625E+12
    0.130305194319116313E+01    0.712060408386769642E-03   -0.382249625455777283E+12
    0.109721680182343917E+01    0.599580956803741978E-03   -0.382249625455776733E+12
    0.355920121871695860E+00    0.194494646797348074E-03   -0.382249625455775513E+12
    0.115719920788996866E+01    0.632358714937569940E-03   -0.382249625455768555E+12
    0.292036437582076647E+00    0.159585031594836405E-03   -0.382249625455767700E+12
    0.292036437582076647E+00    0.159585031594836405E-03   -0.382249625455767700E+12
    0.114118836776176891E+01    0.623609106954050229E-03   -0.382249625455761169E+12
    0.558111726385995377E+00    0.304983441070833872E-03   -0.382249625455760803E+12
    0.557988211667066469E+00    0.304916132968448392E-03   -0.382249625455758545E+12
    0.557988211667066469E+00    0.304916132968448392E-03   -0.382249625455758545E+12
    0.138174372992452077E+01    0.755062464344194743E-03   -0.382249625455752197E+12
    0.134018091158310582E+01    0.732349757244052813E-03   -0.382249625455749146E+12
    0.141662570380578545E+01    0.774123935134756456E-03   -0.382249625455747253E+12
    0.141662570380578545E+01    0.774123935134756456E-03   -0.382249625455747253E+12
    0.783408894841321368E+00    0.428098667699947273E-03   -0.382249625455746826E+12
    0.783408894841321368E+00    0.428098667699947273E-03   -0.382249625455746826E+12
    0.716422918644995299E+00    0.391493526328093062E-03   -0.382249625455745972E+12
    0.108761540810049651E+01    0.594334209903605855E-03   -0.382249625455741821E+12
    0.108761540810049651E+01    0.594334209903605855E-03   -0.382249625455741821E+12
    0.964196761967873517E+00    0.526891322078293107E-03   -0.382249625455739014E+12
    0.964196761967873517E+00    0.526891322078293107E-03   -0.382249625455739014E+12
    0.974456130473515092E+00    0.532497296845116895E-03   -0.382249625455738159E+12
    0.987804133272153440E+00    0.539791391821237425E-03   -0.382249625455737061E+12
    0.103879075084789818E+01    0.567653329628832579E-03   -0.382249625455736633E+12
    0.119964035297977345E+01    0.655550544088436059E-03   -0.382249625455730225E+12
    0.119964035297977345E+01    0.655550544088436059E-03   -0.382249625455730225E+12
    0.120362789150599481E+01    0.657729558575584675E-03   -0.382249625455727112E+12
    0.552202394257283347E+00    0.301754254607111976E-03   -0.382249625455724976E+12
    0.122886373894325329E+01    0.671520236037039518E-03   -0.382249625455722595E+12
    0.117145129753610422E+01    0.640146470206445360E-03   -0.382249625455720581E+12
    0.123146466846931402E+01    0.672941529221902446E-03   -0.382249625455717529E+12
    0.732143557600354211E+00    0.400084401306168350E-03   -0.382249625455712769E+12
    0.102656161142436075E+01    0.560970978186271394E-03   -0.382249625455712463E+12
    0.101422967902351235E+01    0.554232116958533884E-03   -0.382249625455712158E+12
    0.109280795820822418E+01    0.597171355122040463E-03   -0.382249625455711548E+12
    0.968222346772052322E+00    0.529091123782530429E-03   -0.382249625455710144E+12
    0.124838637201635727E+01    0.682188498010577894E-03   -0.382249625455710083E+12
    0.659963977200952567E+00    0.360641208615105583E-03   -0.382249625455709290E+12
    0.100657395479606038E+01    0.550048598087681299E-03   -0.382249625455707153E+12
    0.100657395479606038E+01    0.550048598087681299E-03   -0.382249625455707153E+12
    0.128352414438497586E+01    0.701389750941595544E-03   -0.382249625455703247E+12
    0.112547903214092093E+01    0.615024657618935800E-03   -0.382249625455703125E+12
    0.870264690338529823E+00    0.475561551935513348E-03   -0.382249625455701172E+12
    0.870264690338529823E+00    0.475561551935513348E-03   -0.382249625455701172E+12
    0.787148631054616077E+00    0.430142264374719222E-03   -0.382249625455700317E+12
    0.254836178873153685E+00    0.139256733671669109E-03   -0.382249625455699219E+12
    0.254836178873153685E+00    0.139256733671669109E-03   -0.382249625455699219E+12
    0.119880535354258932E+01    0.655094639505025269E-03   -0.382249625455696106E+12
    0.128820085240979010E+01    0.703944957865492945E-03   -0.382249625455695618E+12
    0.128655348169815054E+01    0.703044742896682538E-03   -0.382249625455693237E+12
    0.482198048343143559E+00    0.263500121483826262E-03   -0.382249625455692017E+12
    0.145438802585986759E+01    0.794758920608444196E-03   -0.382249625455690735E+12
    0.383246325446041813E+00    0.209427337162504254E-03   -0.382249625455689819E+12
    0.383246325446041813E+00    0.209427337162504254E-03   -0.382249625455689819E+12
    0.505627555398141193E+00    0.276303320966507862E-03   -0.382249625455688049E+12
    0.131047756116953495E+01    0.716118198392201718E-03   -0.382249625455687866E+12
    0.110519493053499218E+01    0.603940640344438032E-03   -0.382249625455687500E+12
    0.793655649730059753E+00    0.433697814872633595E-03   -0.382249625455683594E+12
    0.140427455887448449E+01    0.767374560911517241E-03   -0.382249625455680176E+12
    0.607869979764497970E+00    0.332174328580635433E-03   -0.382249625455679565E+12
    0.107401271857678760E+01    0.586900925424450512E-03   -0.382249625455679443E+12
    0.799379607170372597E+00    0.436825954483406761E-03   -0.382249625455677246E+12
    0.138018658225158530E+01    0.754211106712077400E-03   -0.382249625455677185E+12
    0.619773799797451175E+00    0.338679052723510332E-03   -0.382249625455671143E+12
    0.506079979547668035E+00    0.276550549619332061E-03   -0.382249625455671021E+12
    0.227636869111522977E+00    0.124393511610739708E-03   -0.382249625455663696E+12
    0.227636869111522977E+00    0.124393511610739708E-03   -0.382249625455663696E+12
    0.134649235868990202E+01    0.735798703050240385E-03   -0.382249625455659546E+12
    0.544837494898019692E+00    0.297729833541197052E-03   -0.382249625455657288E+12
    0.148478152030135879E+01    0.811368084983678760E-03   -0.382249625455657104E+12
    0.362865055999960329E+00    0.198289863907344545E-03   -0.382249625455657104E+12
    0.362865055999960329E+00    0.198289863907344545E-03   -0.382249625455657104E+12
    0.132292830749704682E+01    0.722922391186376669E-03   -0.382249625455655884E+12
    0.132292830749704682E+01    0.722922391186376669E-03   -0.382249625455655884E+12
    0.123829169457038457E+01    0.676672187888089326E-03   -0.382249625455653687E+12
    0.149921236720351692E+01    0.819253909470020708E-03   -0.382249625455651123E+12
    0.149921236720351692E+01    0.819253909470020708E-03   -0.382249625455651123E+12
    0.138411713600666730E+01    0.756359404841230485E-03   -0.382249625455647949E+12
    0.933786733091234389E+00    0.510273278538767245E-03   -0.382249625455643311E+12
    0.138930453909319751E+01    0.759194091661765996E-03   -0.382249625455639893E+12
    0.138930453909319751E+01    0.759194091661765996E-03   -0.382249625455639893E+12
    0.104270520858576043E+01    0.569792735008623472E-03   -0.382249625455637207E+12
    0.114426130079827026E+01    0.625288691648423316E-03   -0.382249625455634766E+12
    0.934554289096299451E+00    0.510692992529106085E-03   -0.382249625455630249E+12
    0.117360304325100206E+01    0.641322321561866378E-03   -0.382249625455626953E+12
    0.117360304325100206E+01    0.641322321561866378E-03   -0.382249625455626953E+12
    0.992570155607240157E+00    0.542396121959281760E-03   -0.382249625455624451E+12
    0.612674320300455211E+00    0.334799504873628409E-03   -0.382249625455624023E+12
    0.139823786814357254E+01    0.764075350774365302E-03   -0.382249625455622314E+12
    0.129901467560193273E+01    0.709854631129177888E-03   -0.382249625455621033E+12
    0.147840232250081027E+01    0.807881691479270204E-03   -0.382249625455619812E+12
    0.147840232250081027E+01    0.807881691479270204E-03   -0.382249625455619812E+12
    0.134103116791866972E+01    0.732814803316171538E-03   -0.382249625455617432E+12
    0.786152308672552480E+00    0.429597579177613516E-03   -0.382249625455609985E+12
    0.786152308672552480E+00    0.429597579177613516E-03   -0.382249625455609985E+12
    0.827723729208162839E+00    0.452314767094971250E-03   -0.382249625455609741E+12
    0.135355455307313566E+01    0.739658283044578578E-03   -0.382249625455609497E+12
    0.113927205876300075E+01    0.622562284616582588E-03   -0.382249625455609497E+12
    0.139370563403260728E+01    0.761598689106926627E-03   -0.382249625455603149E+12
    0.750619675456095869E+00    0.410180562673655342E-03   -0.382249625455601318E+12
    0.750619675456095869E+00    0.410180562673655342E-03   -0.382249625455601318E+12
    0.104798742412525869E+01    0.572679228219735627E-03   -0.382249625455601196E+12
    0.967288298472182340E+00    0.528580413925407470E-03   -0.382249625455599609E+12
    0.967288298472182340E+00    0.528580413925407470E-03   -0.382249625455599609E+12
    0.387774784498377711E+00    0.211901825368932694E-03   -0.382249625455599487E+12
    0.115755756049517622E+01    0.632554178223334652E-03   -0.382249625455598145E+12
    0.115755756049517622E+01    0.632554178223334652E-03   -0.382249625455598145E+12
    0.132353212752032401E+01    0.723251963031342339E-03   -0.382249625455595520E+12
    0.132192238008078511E+01    0.722372680044813527E-03   -0.382249625455583618E+12
    0.134347102331751866E+01    0.734147693389913618E-03   -0.382249625455583496E+12
    0.134347102331751866E+01    0.734147693389913618E-03   -0.382249625455583496E+12
    0.135141332429531458E+01    0.738488189191009248E-03   -0.382249625455582947E+12
    0.135141332429531458E+01    0.738488189191009248E-03   -0.382249625455582947E+12
    0.783259975439070444E+00    0.428017269291150189E-03   -0.382249625455581970E+12
    0.578640432364802115E+00    0.316201489844819821E-03   -0.382249625455580444E+12
    0.578640432364802115E+00    0.316201489844819821E-03   -0.382249625455580444E+12
    0.978422723356500379E+00    0.534664889922381896E-03   -0.382249625455577881E+12
    0.141333535669947774E+01    0.772325866335241639E-03   -0.382249625455577454E+12
    0.141333535669947774E+01    0.772325866335241639E-03   -0.382249625455577454E+12
    0.706043933139254398E+00    0.385822083454337536E-03   -0.382249625455575195E+12
    0.129460271576852959E+01    0.707443319978174581E-03   -0.382249625455572327E+12
    0.132500528281593311E+01    0.724056982938886258E-03   -0.382249625455571533E+12
    0.144628407341244403E+01    0.790330497096819224E-03   -0.382249625455568176E+12
    0.144628407341244403E+01    0.790330497096819224E-03   -0.382249625455568176E+12
    0.116750757545737249E+01    0.637991428875379408E-03   -0.382249625455567932E+12
    0.116750757545737249E+01    0.637991428875379408E-03   -0.382249625455567932E+12
    0.137269166688016497E+01    0.750115490943427388E-03   -0.382249625455567261E+12
    0.110460351626347020E+01    0.603617134658811856E-03   -0.382249625455560425E+12
    0.406718896378881645E+00    0.222254060578532604E-03   -0.382249625455557617E+12
    0.406718896378881645E+00    0.222254060578532604E-03   -0.382249625455557617E+12
    0.889605858417783835E+00    0.486130391466333778E-03   -0.382249625455557312E+12
    0.109214077582202651E+01    0.596807092721690440E-03   -0.382249625455557007E+12
    0.109214077582202651E+01    0.596807092721690440E-03   -0.382249625455557007E+12
    0.118109353339261403E+01    0.645415559112752610E-03   -0.382249625455553345E+12
    0.127542830168560872E+01    0.696965694939126988E-03   -0.382249625455549377E+12
    0.943538411492734763E+00    0.515602155997856981E-03   -0.382249625455549072E+12
    0.122497709300371516E+01    0.669396319215047461E-03   -0.382249625455548218E+12
    0.128629703540993257E+01    0.702904979110623596E-03   -0.382249625455537964E+12
    0.773100218434696784E+00    0.422465400971180969E-03   -0.382249625455537598E+12
    0.140264083118023519E+01    0.766481396670217027E-03   -0.382249625455537476E+12
    0.814967629024356488E+00    0.445343891794310661E-03   -0.382249625455537354E+12
    0.122091536604567930E+01    0.667176760349555463E-03   -0.382249625455534668E+12
    0.795454086664791893E+00    0.434680601317186696E-03   -0.382249625455534546E+12
    0.795454086664791893E+00    0.434680601317186696E-03   -0.382249625455534546E+12
    0.345325367171676834E+00    0.188705094190967204E-03   -0.382249625455532715E+12
    0.482074387206444632E+00    0.263432407038274256E-03   -0.382249625455531372E+12
    0.122681149726649408E+01    0.670398416496494954E-03   -0.382249625455530396E+12
    0.129436835740751399E+01    0.707315264541922249E-03   -0.382249625455525024E+12
    0.117395601398161475E+01    0.641515529549403513E-03   -0.382249625455524780E+12
    0.134462685895252387E+01    0.734779321400039795E-03   -0.382249625455522461E+12
    0.766420202780850213E+00    0.418814865241574073E-03   -0.382249625455521362E+12
    0.141648662037115436E+01    0.774047514558357441E-03   -0.382249625455521118E+12
    0.120369524993667953E+01    0.657766718079519515E-03   -0.382249625455520325E+12
    0.834890792367957491E+00    0.456231027119179816E-03   -0.382249625455507935E+12
    0.766504856823020608E+00    0.418861320438073455E-03   -0.382249625455507446E+12
    0.766504856823020608E+00    0.418861320438073455E-03   -0.382249625455507446E+12
    0.729052073546580415E+00    0.398394831372100009E-03   -0.382249625455507080E+12
    0.121312367184091530E+01    0.662918628696186011E-03   -0.382249625455506104E+12
    0.121312367184091530E+01    0.662918628696186011E-03   -0.382249625455506104E+12
    0.967579386250033369E+00    0.528739496897237733E-03   -0.382249625455505981E+12
    0.123286749713862531E+01    0.673708069695917733E-03   -0.382249625455505981E+12
    0.801311138043459881E+00    0.437881226142141299E-03   -0.382249625455505615E+12
    0.145234086775397286E+01    0.793640285514544703E-03   -0.382249625455503662E+12
    0.145234086775397286E+01    0.793640285514544703E-03   -0.382249625455503662E+12
    0.283118072368934603E+00    0.154711550716312454E-03   -0.382249625455503296E+12
    0.856818597773627011E+00    0.468213821760916405E-03   -0.382249625455500854E+12
    0.856818597773627011E+00    0.468213821760916405E-03   -0.382249625455500854E+12
    0.701456016722785236E+00    0.383314978503943179E-03   -0.382249625455500854E+12
    0.123750478866084790E+01    0.676242144596208780E-03   -0.382249625455498718E+12
    0.123750478866084790E+01    0.676242144596208780E-03   -0.382249625455498718E+12
    0.928685459658192602E+00    0.507485912158389956E-03   -0.382249625455496826E+12
    0.851281020254713749E+00    0.465187566391894421E-03   -0.382249625455495850E+12
    0.729727208632461766E+00    0.398763944459382016E-03   -0.382249625455488892E+12
    0.957807778831363144E+00    0.523399981841126327E-03   -0.382249625455487610E+12
    0.957807778831363144E+00    0.523399981841126327E-03   -0.382249625455487610E+12
    0.463546643378272838E+00    0.253307815587239271E-03   -0.382249625455486206E+12
    0.132744382738411248E+01    0.725389884510500545E-03   -0.382249625455483398E+12
    0.113669803336318265E+01    0.621155390310200906E-03   -0.382249625455482544E+12
    0.104047475275923818E+01    0.568573608065913870E-03   -0.382249625455478577E+12
    0.143912648220338069E+01    0.786419213749844654E-03   -0.382249625455476807E+12
    0.914010490552187305E+00    0.499466680841542817E-03   -0.382249625455476318E+12
    0.914010490552187305E+00    0.499466680841542817E-03   -0.382249625455476318E+12
    0.106291234047684058E+01    0.580835016772953284E-03   -0.382249625455475830E+12
    0.362586096277158543E+00    0.198137325932613558E-03   -0.382249625455475708E+12
    0.296651573683658187E+00    0.162107014470164634E-03   -0.382249625455475159E+12
    0.925493122253262301E+00    0.505741214180381962E-03   -0.382249625455473267E+12
    0.925493122253262301E+00    0.505741214180381962E-03   -0.382249625455473267E+12
    0.787365832098756213E+00    0.430260923910333022E-03   -0.382249625455471985E+12
    0.423133318383361323E+00    0.231223816130340628E-03   -0.382249625455470215E+12
    0.923615424108982896E+00    0.504715136059655711E-03   -0.382249625455466919E+12
    0.923615424108982896E+00    0.504715136059655711E-03   -0.382249625455466919E+12
    0.810722744046879495E+00    0.443024260814537697E-03   -0.382249625455463989E+12
    0.810722744046879495E+00    0.443024260814537697E-03   -0.382249625455463989E+12
    0.122956460215029928E+01    0.671902882951158414E-03   -0.382249625455463867E+12
    0.883822531547450385E+00    0.482970074102952553E-03   -0.382249625455463684E+12
    0.113460869825977295E+01    0.620013931411974011E-03   -0.382249625455462280E+12
    0.106297899430943166E+01    0.580871188077885787E-03   -0.382249625455462097E+12
    0.982316321473834519E+00    0.536792591834516202E-03   -0.382249625455458862E+12
    0.118616536164518438E+01    0.648187111814490765E-03   -0.382249625455456909E+12
    0.854926726041630225E+00    0.467179790833027178E-03   -0.382249625455456055E+12
    0.968477630943035406E+00    0.529230582184029717E-03   -0.382249625455455688E+12
    0.440985507599039761E+00    0.240979253824103552E-03   -0.382249625455454895E+12
    0.145021869751156740E+01    0.792480627268169618E-03   -0.382249625455454712E+12
    0.791450561199108282E+00    0.432493046418118638E-03   -0.382249625455453857E+12
    0.834223305173817820E+00    0.455866283944313946E-03   -0.382249625455453247E+12
    0.124895879958488099E+01    0.682501248196134181E-03   -0.382249625455453125E+12
    0.124895879958488099E+01    0.682501248196134181E-03   -0.382249625455453125E+12
    0.146562916932554077E+01    0.800901772110749815E-03   -0.382249625455451721E+12
    0.141167267007133068E+01    0.771416922440826768E-03   -0.382249625455451355E+12
    0.575538418293476073E+00    0.314506522223518756E-03   -0.382249625455450317E+12
    0.887319252128170199E+00    0.484880880528774493E-03   -0.382249625455449097E+12
    0.993829333666905290E+00    0.543084175184124144E-03   -0.382249625455448425E+12
    0.993829333666905290E+00    0.543084175184124144E-03   -0.382249625455448425E+12
    0.108971170350513136E+01    0.595479688100679621E-03   -0.382249625455448242E+12
    0.979050632946044885E+00    0.535008039162237917E-03   -0.382249625455447998E+12
    0.103115243003296331E+01    0.563479375974281632E-03   -0.382249625455447876E+12
    0.116264239813430303E+01    0.635332850786479524E-03   -0.382249625455447876E+12
    0.324347871259790699E+00    0.177241822630690203E-03   -0.382249625455447754E+12
    0.130538986181840500E+01    0.713338348532261963E-03   -0.382249625455445557E+12
    0.130538986181840500E+01    0.713338348532261963E-03   -0.382249625455445557E+12
    0.741061889084737691E+00    0.404957843831311147E-03   -0.382249625455444092E+12
    0.988986141067122571E+00    0.540437581599471440E-03   -0.382249625455443237E+12
    0.988986141067122571E+00    0.540437581599471440E-03   -0.382249625455443237E+12
    0.746041893084569585E+00    0.407679197481124536E-03   -0.382249625455442261E+12
    0.746041893084569585E+00    0.407679197481124536E-03   -0.382249625455442261E+12
    0.143666721019787591E+01    0.785075664954177970E-03   -0.382249625455442261E+12
    0.143666721019787591E+01    0.785075664954177970E-03   -0.382249625455442261E+12
    0.140038835195279443E+01    0.765250542715017763E-03   -0.382249625455441284E+12
    0.745077040245711086E+00    0.407151947460047503E-03   -0.382249625455440857E+12
    0.116011640956107742E+01    0.633952772440891108E-03   -0.382249625455440430E+12
    0.116566344296841118E+01    0.636983982735001919E-03   -0.382249625455438965E+12
    0.137916265643177094E+01    0.753651944800479319E-03   -0.382249625455436157E+12
    0.917498403295444631E+00    0.501372664257026591E-03   -0.382249625455434448E+12
    0.431410325201556200E+00    0.235746738437013579E-03   -0.382249625455433411E+12
    0.431410325201556200E+00    0.235746738437013579E-03   -0.382249625455433411E+12
    0.138417764126379539E+01    0.756392105886029916E-03   -0.382249625455433228E+12
    0.138417764126379539E+01    0.756392105886029916E-03   -0.382249625455433228E+12
    0.974378464041140702E+00    0.532454907933838594E-03   -0.382249625455432495E+12
    0.140300834739698033E+01    0.766682257723236499E-03   -0.382249625455431763E+12
    0.326083614759988982E+00    0.178190331112709597E-03   -0.382249625455431702E+12
    0.642167227939026475E+00    0.350916243995748789E-03   -0.382249625455431152E+12
    0.149668794256258098E+01    0.817874031025038234E-03   -0.382249625455427979E+12
    0.149668794256258098E+01    0.817874031025038234E-03   -0.382249625455427979E+12
    0.128426800833564769E+01    0.701795894625746488E-03   -0.382249625455426270E+12
    0.135025860882145099E+01    0.737856851150569680E-03   -0.382249625455425415E+12
    0.814052307771754968E+00    0.444843905315325686E-03   -0.382249625455424988E+12
    0.238423787736269654E+00    0.130288097630055160E-03   -0.382249625455422729E+12
    0.826239894693796550E+00    0.451503707418204328E-03   -0.382249625455421997E+12
    0.386726723359362756E+00    0.211329203323409659E-03   -0.382249625455421509E+12
    0.106006385744555276E+01    0.579278433365427547E-03   -0.382249625455421387E+12
    0.726001693717117647E+00    0.396728103439243391E-03   -0.382249625455420898E+12
    0.137905510620789884E+01    0.753592870489869075E-03   -0.382249625455418945E+12
    0.623658355753285543E+00    0.340801820437465475E-03   -0.382249625455418091E+12
    0.585304080467536680E+00    0.319843024504493480E-03   -0.382249625455418091E+12
    0.115825475472171635E+01    0.632935453645464344E-03   -0.382249625455416748E+12
    0.126922026563374968E+01    0.693572969084543778E-03   -0.382249625455415710E+12
    0.225039012246136760E+00    0.122973955975817729E-03   -0.382249625455415283E+12
    0.130078034309158075E+01    0.710819439311774254E-03   -0.382249625455413208E+12
    0.786426850366943153E+00    0.429747634250237797E-03   -0.382249625455411621E+12
    0.127018749429833466E+01    0.694101518212964321E-03   -0.382249625455411255E+12
    0.127018749429833466E+01    0.694101518212964321E-03   -0.382249625455411255E+12
    0.776579839441690289E+00    0.424366676676950336E-03   -0.382249625455410645E+12
    0.113097761946157926E+01    0.618029453611233402E-03   -0.382249625455410278E+12
    0.149107928041269222E+01    0.814809150375022761E-03   -0.382249625455409607E+12
    0.114680907500711471E+01    0.626680646968410388E-03   -0.382249625455409424E+12
    0.121945960946397602E+01    0.666380965025361216E-03   -0.382249625455406067E+12
    0.103037660100091877E+01    0.563055429113800071E-03   -0.382249625455406006E+12
    0.123951708376596015E+01    0.677341491365069217E-03   -0.382249625455405701E+12
    0.122650044415188675E+01    0.670228471359977668E-03   -0.382249625455404907E+12
    0.428514116244449295E+00    0.234164180047550277E-03   -0.382249625455402466E+12
    0.760851736127217793E+00    0.415772120843653731E-03   -0.382249625455402344E+12
    0.697832365492526807E+00    0.381334652098388896E-03   -0.382249625455401978E+12
    0.697832365492526807E+00    0.381334652098388896E-03   -0.382249625455401978E+12
    0.105199541589612000E+01    0.574869160816892559E-03   -0.382249625455399658E+12
    0.113620768910971925E+01    0.620887459284745306E-03   -0.382249625455398987E+12
    0.101193990750138152E+01    0.552980798893724186E-03   -0.382249625455398865E+12
    0.113887130986506913E+01    0.622343010870481193E-03   -0.382249625455398315E+12
    0.113887130986506913E+01    0.622343010870481193E-03   -0.382249625455398315E+12
    0.817634526118435900E+00    0.446801425155643310E-03   -0.382249625455395691E+12
    0.116101771704169865E+01    0.634445285307439323E-03   -0.382249625455393921E+12
    0.116101771704169865E+01    0.634445285307439323E-03   -0.382249625455393921E+12
    0.140182893856539126E+01    0.766037774868967721E-03   -0.382249625455393799E+12
    0.140182893856539126E+01    0.766037774868967721E-03   -0.382249625455393799E+12
    0.110185375337098712E+01    0.602114548341274787E-03   -0.382249625455391846E+12
    0.134259496970510117E+01    0.733669291284658014E-03   -0.382249625455385986E+12
    0.125458661728125587E+01    0.685576333615905975E-03   -0.382249625455385681E+12
    0.980863977616912797E+00    0.535999162060579910E-03   -0.382249625455384277E+12
    0.139155488238665903E+01    0.760423459899129718E-03   -0.382249625455381104E+12
    0.136235548161591113E+01    0.744467543137608415E-03   -0.382249625455381104E+12
    0.103554455345078789E+01    0.565879494155488915E-03   -0.382249625455379028E+12
    0.860426012699618492E+00    0.470185092970250881E-03   -0.382249625455377930E+12
    0.121510327855337397E+01    0.664000668952460468E-03   -0.382249625455377930E+12
    0.108405042146596675E+01    0.592385815398842157E-03   -0.382249625455377197E+12
    0.126801843840413819E+01    0.692916235937653005E-03   -0.382249625455374084E+12
    0.133305186835206202E+01    0.728454141617110524E-03   -0.382249625455373657E+12
    0.574767663665341599E+00    0.314085328463633380E-03   -0.382249625455373291E+12
    0.742763070086925214E+00    0.405887452518115331E-03   -0.382249625455372803E+12
    0.890420027319525631E+00    0.486575333325084706E-03   -0.382249625455372070E+12
    0.229622670134042445E+00    0.125478677455802224E-03   -0.382249625455369141E+12
    0.110150186033544051E+01    0.601922260440085908E-03   -0.382249625455369019E+12
    0.141872103624283308E+01    0.775268570833023934E-03   -0.382249625455369019E+12
    0.542349714226660451E+00    0.296370339203620009E-03   -0.382249625455364502E+12
    0.581681420768259683E+00    0.317863281975499688E-03   -0.382249625455364258E+12
    0.991036487806412403E+00    0.541557800494864424E-03   -0.382249625455362549E+12
    0.465823371567912814E+00    0.254552048039575910E-03   -0.382249625455362488E+12
    0.145192691575706667E+01    0.793414124249696351E-03   -0.382249625455362244E+12
    0.872286692984696854E+00    0.476666266850588440E-03   -0.382249625455362061E+12
    0.458562527993755853E+00    0.250584315173043952E-03   -0.382249625455360718E+12
    0.458562527993755853E+00    0.250584315173043952E-03   -0.382249625455360718E+12
    0.117644171524305130E+01    0.642873593632573405E-03   -0.382249625455360474E+12
    0.102211070081785782E+01    0.558538681783753610E-03   -0.382249625455359863E+12
    0.129490345909014115E+01    0.707607962216289356E-03   -0.382249625455357300E+12
    0.951757258774715842E+00    0.520093608776787670E-03   -0.382249625455353149E+12
    0.139502411798500470E+01    0.762319254284226397E-03   -0.382249625455353149E+12
    0.139172990022759779E+01    0.760519109710946356E-03   -0.382249625455352173E+12
    0.109579359967446921E+01    0.598802952183423746E-03   -0.382249625455351929E+12
    0.109740979640566261E+01    0.599686333440318858E-03   -0.382249625455351379E+12
    0.115883387434242136E+01    0.633251898529706841E-03   -0.382249625455350952E+12
    0.119757122972838537E+01    0.654420164447637107E-03   -0.382249625455350342E+12
    0.117803753441544679E+01    0.643745856513451347E-03   -0.382249625455350342E+12
    0.665172124053487801E+00    0.363487398269282962E-03   -0.382249625455348999E+12
    0.302180014060477398E+00    0.165128072312233467E-03   -0.382249625455348999E+12
    0.985360904210198063E+00    0.538456526426054748E-03   -0.382249625455348755E+12
    0.628693348431021093E+00    0.343553346894483213E-03   -0.382249625455348572E+12
    0.138778882867751108E+01    0.758365489459177935E-03   -0.382249625455347168E+12
    0.138778882867751108E+01    0.758365489459177935E-03   -0.382249625455347168E+12
    0.990548122408974829E+00    0.541290934347693118E-03   -0.382249625455347046E+12
    0.174009097274150620E+00    0.950883412970874832E-04   -0.382249625455346069E+12
    0.143522580314870907E+01    0.784287708412469793E-03   -0.382249625455344360E+12
    0.811926405932706707E+00    0.443682176416424585E-03   -0.382249625455340881E+12
    0.122469198730647544E+01    0.669240249195395963E-03   -0.382249625455340393E+12
    0.112157633385161160E+01    0.612892282941591353E-03   -0.382249625455339600E+12
    0.135441337568785425E+01    0.740127515664010336E-03   -0.382249625455338989E+12
    0.128862338212287897E+01    0.704175942274866125E-03   -0.382249625455338501E+12
    0.492332866866075303E+00    0.269038321723350958E-03   -0.382249625455338379E+12
    0.129327667411867830E+01    0.706718761960502674E-03   -0.382249625455337158E+12
    0.790827874038993350E+00    0.432152752989782226E-03   -0.382249625455336548E+12
    0.133585213724054297E+01    0.729984378416860492E-03   -0.382249625455336182E+12
    0.125540870873872468E+01    0.686025586962961680E-03   -0.382249625455334717E+12
    0.108338124280970849E+01    0.592020151311574015E-03   -0.382249625455332886E+12
    0.111412265924691689E+01    0.608818982236478037E-03   -0.382249625455332031E+12
    0.140721427860531434E+01    0.768980890889290236E-03   -0.382249625455331909E+12
    0.122224200834507801E+01    0.667901656697967639E-03   -0.382249625455330933E+12
    0.137675280298082714E+01    0.752334793689014261E-03   -0.382249625455330444E+12
    0.137554541755516402E+01    0.751675011227678986E-03   -0.382249625455329102E+12
    0.700868142127237581E+00    0.382993583455282607E-03   -0.382249625455328857E+12
    0.758405734887810379E+00    0.414435345003068701E-03   -0.382249625455327759E+12
    0.758405734887810379E+00    0.414435345003068701E-03   -0.382249625455327759E+12
    0.145845324190437831E+01    0.796980488579395125E-03   -0.382249625455325623E+12
    0.110443605227761399E+01    0.603525680300542725E-03   -0.382249625455324707E+12
    0.114771834574273335E+01    0.627177740626659098E-03   -0.382249625455322876E+12
    0.111182559180989604E+01    0.607563924308235294E-03   -0.382249625455321533E+12
    0.909927581774067962E+00    0.497235516132764625E-03   -0.382249625455320068E+12
    0.148983837074802228E+01    0.814131328738927087E-03   -0.382249625455320007E+12
    0.112193101357407143E+01    0.613086093548418677E-03   -0.382249625455319824E+12
    0.147602323753327713E+01    0.806581720409990676E-03   -0.382249625455319336E+12
    0.319118689564957481E+00    0.174384315498818507E-03   -0.382249625455317139E+12
    0.166490631835707836E+00    0.909798009988429889E-04   -0.382249625455317078E+12
    0.628907181751052091E+00    0.343670088962219557E-03   -0.382249625455316650E+12
    0.839292532152654980E+00    0.458636558206698697E-03   -0.382249625455315308E+12
    0.108504239866181096E+01    0.592927905488448907E-03   -0.382249625455314941E+12
    0.145076758469735512E+01    0.792780855508949905E-03   -0.382249625455314819E+12
    0.646576875739009349E+00    0.353325799249286203E-03   -0.382249625455314697E+12
    0.105171864254039304E+01    0.574717940007130057E-03   -0.382249625455314087E+12
    0.993220744704509384E+00    0.542751414504879267E-03   -0.382249625455312378E+12
    0.100515542981478756E+01    0.549273356061352573E-03   -0.382249625455311462E+12
    0.121563009351235940E+01    0.664288333462282926E-03   -0.382249625455311035E+12
    0.917882254089835037E+00    0.501582246289132517E-03   -0.382249625455310791E+12
    0.137536910636588394E+01    0.751578892033198534E-03   -0.382249625455309998E+12
    0.851319055805883629E+00    0.465208524431419781E-03   -0.382249625455309448E+12
    0.733393039396033508E+00    0.400767012290618237E-03   -0.382249625455308472E+12
    0.127302446268361713E+01    0.695651830950710839E-03   -0.382249625455307800E+12
    0.112726587902617559E+01    0.616001181296722562E-03   -0.382249625455307495E+12
    0.122671551466843676E+01    0.670346223214167360E-03   -0.382249625455307373E+12
    0.113312680868070537E+01    0.619203921626870551E-03   -0.382249625455306763E+12
    0.734080259812687652E+00    0.401142548889728593E-03   -0.382249625455304443E+12
    0.256503755047901350E+00    0.140168011263682726E-03   -0.382249625455303955E+12
    0.140853219563815402E+01    0.769701062902904587E-03   -0.382249625455303406E+12
    0.753912201431330420E+00    0.411979832272864810E-03   -0.382249625455303284E+12
    0.602016283101436844E+00    0.328975399143658785E-03   -0.382249625455302979E+12
    0.377156585260585819E+00    0.206099472242248568E-03   -0.382249625455302246E+12
    0.114805244931159933E+01    0.627360128921865680E-03   -0.382249625455302002E+12
    0.111754176141905837E+01    0.610687553483181978E-03   -0.382249625455301270E+12
    0.135190313444863097E+01    0.738755763642479774E-03   -0.382249625455300659E+12
    0.137685827471517497E+01    0.752392652480150695E-03   -0.382249625455299011E+12
    0.122128094943194077E+01    0.667376468376821284E-03   -0.382249625455298706E+12
    0.117715924544276862E+01    0.643265713282918585E-03   -0.382249625455297974E+12
    0.969546124767473927E+00    0.529814281308809668E-03   -0.382249625455297607E+12
    0.133414560659497461E+01    0.729051849809099809E-03   -0.382249625455297607E+12
    0.776184050790359903E+00    0.424150419039592938E-03   -0.382249625455297485E+12
    0.358990868340458125E+00    0.196172708261361443E-03   -0.382249625455296143E+12
    0.145334429714345692E+01    0.794188907279254471E-03   -0.382249625455295776E+12
    0.148260143462912386E+01    0.810176426402796227E-03   -0.382249625455295410E+12
    0.769203042481087285E+00    0.420335721357316633E-03   -0.382249625455295105E+12
    0.922350190366646450E+00    0.504023919766779160E-03   -0.382249625455294922E+12
    0.106025903878177141E+01    0.579384897379633013E-03   -0.382249625455293579E+12
    0.272231566937625569E+00    0.148762569157457746E-03   -0.382249625455292480E+12
    0.125155404845502138E+01    0.683919201358433246E-03   -0.382249625455291016E+12
    0.920686995871728531E+00    0.503115055446100887E-03   -0.382249625455289917E+12
    0.662528077738829935E+00    0.362042531323312686E-03   -0.382249625455289795E+12
    0.107369660484494900E+01    0.586728094371420086E-03   -0.382249625455289062E+12
    0.114792520076722804E+01    0.627290765760812473E-03   -0.382249625455288879E+12
    0.109116669622638796E+01    0.596274732849824923E-03   -0.382249625455288818E+12
    0.995989128262758427E+00    0.544264366991952376E-03   -0.382249625455288391E+12
    0.149374743283550027E+01    0.816267227574042913E-03   -0.382249625455287842E+12
    0.138284101912221757E+01    0.755661954469398186E-03   -0.382249625455286987E+12
    0.253105725765847778E+00    0.138311139253148683E-03   -0.382249625455286682E+12
    0.100687945320214434E+01    0.550215305764724253E-03   -0.382249625455286316E+12
    0.657750359485375746E+00    0.359431717097833704E-03   -0.382249625455286255E+12
    0.144474382444908978E+01    0.789489121533085776E-03   -0.382249625455285950E+12
    0.142975099119155091E+01    0.781295989869004682E-03   -0.382249625455285706E+12
    0.101441745535566441E+01    0.554334492393872063E-03   -0.382249625455285645E+12
    0.144588725413624464E+01    0.790113747610400943E-03   -0.382249625455285278E+12
    0.765181625645363184E+00    0.418138190768036812E-03   -0.382249625455284424E+12
    0.880047097268156886E+00    0.480907006184735214E-03   -0.382249625455283936E+12
    0.508269909045955037E+00    0.277747207977970738E-03   -0.382249625455283936E+12
    0.119256005804625764E+01    0.651681585073887975E-03   -0.382249625455283691E+12
    0.773019688567508023E+00    0.422421347609372845E-03   -0.382249625455281860E+12
    0.428049082633692013E+00    0.233910045222933893E-03   -0.382249625455281616E+12
    0.143673085102832143E+01    0.785110178204880102E-03   -0.382249625455281372E+12
    0.928468620240296749E+00    0.507367238784526653E-03   -0.382249625455279541E+12
    0.116033784373342330E+01    0.634073564839244142E-03   -0.382249625455279297E+12
    0.967707778781476291E+00    0.528809712158577537E-03   -0.382249625455279053E+12
    0.112171418155710167E+01    0.612967589349434775E-03   -0.382249625455277832E+12
    0.120307293512833313E+01    0.657426412270594091E-03   -0.382249625455277466E+12
    0.101624887403765052E+01    0.555335284958574974E-03   -0.382249625455277405E+12
    0.139401646059635942E+01    0.761768837827536530E-03   -0.382249625455276184E+12
    0.670387646032535534E+00    0.366337437370164662E-03   -0.382249625455275635E+12
    0.943577270188260320E+00    0.515623581235804705E-03   -0.382249625455274536E+12
    0.713538534831795301E+00    0.389917407517098016E-03   -0.382249625455274475E+12
    0.134087309145903122E+01    0.732728317243842723E-03   -0.382249625455274414E+12
    0.115704143544650151E+01    0.632272224897259256E-03   -0.382249625455274170E+12
    0.134107600117311554E+01    0.732839016732556741E-03   -0.382249625455272583E+12
    0.110647432213247732E+01    0.604639523717394670E-03   -0.382249625455271973E+12
    0.639875682961704495E+00    0.349663987300978388E-03   -0.382249625455271851E+12
    0.593133488126863284E+00    0.324121365856722924E-03   -0.382249625455209412E+12
    0.590684900615693342E+00    0.322783354961513893E-03   -0.382249625455186890E+12
    0.597607360318334724E+00    0.326566162386471542E-03   -0.382249625455178833E+12
    0.596052440821657759E+00    0.325716451180705030E-03   -0.382249625455195435E+12
    0.539867900827907810E+00    0.295014095524813609E-03   -0.382249625455185425E+12
    0.496443720917001563E+00    0.271284659557449238E-03   -0.382249625455212158E+12
    0.511962810327222684E+00    0.279765146527949837E-03   -0.382249625455266846E+12
    0.567640842701948811E+00    0.310190791147565655E-03   -0.382249625455189575E+12
    0.474452676490346725E+00    0.259267568177502913E-03   -0.382249625455251343E+12
    0.531307456577285064E+00    0.290336168856671301E-03   -0.382249625455186523E+12
    0.558337964575293499E+00    0.305107167341529730E-03   -0.382249625455179504E+12
    0.571074307276571824E+00    0.312067029775615261E-03   -0.382249625455191284E+12
    0.540193938676785446E+00    0.295192218109579607E-03   -0.382249625455255859E+12
    0.455327021938161214E+00    0.248816239769887929E-03   -0.382249625455265625E+12
    0.464469986170237048E+00    0.253812417308583104E-03   -0.382249625455221436E+12
    0.441765792436091154E+00    0.241405583138520256E-03   -0.382249625455191650E+12
    0.390672595342013929E+00    0.213485385075713280E-03   -0.382249625455243896E+12
    0.398383829687842639E+00    0.217699249291537544E-03   -0.382249625455188110E+12
    0.426415090963944976E+00    0.233017123424931132E-03   -0.382249625455198181E+12
    0.551298958976208509E+00    0.301260690934566531E-03   -0.382249625455257996E+12
    0.413025042578223756E+00    0.225700040759543429E-03   -0.382249625455180298E+12
    0.535508801136719059E+00    0.292632063178805801E-03   -0.382249625455261108E+12
    0.289931750608875771E+00    0.158434973100626657E-03   -0.382249625455209167E+12
    0.231772086523647863E+00    0.126653265828856305E-03   -0.382249625455187256E+12
    0.370947531314057555E+00    0.202706528194226509E-03   -0.382249625455179321E+12
    0.288785110580365045E+00    0.157808372829259006E-03   -0.382249625455178833E+12
    0.281228356644444011E+00    0.153678936429322893E-03   -0.382249625455181396E+12
    0.102941068534347549E+00    0.562527764300379418E-04   -0.382249625455243164E+12
    0.564700576201812021E+00    0.308584029102538398E-03   -0.382249625455211853E+12
    0.497783290605397000E+00    0.272016692825067911E-03   -0.382249625455179321E+12
    0.545061702850496266E+00    0.297852278300943685E-03   -0.382249625455183105E+12
    0.163090775731254217E+00    0.891219404508838920E-04   -0.382249625455182495E+12
    0.547959968992970614E+00    0.299436066744462480E-03   -0.382249625455209839E+12
    0.555434645906597302E+00    0.303520654578000413E-03   -0.382249625455226196E+12
    0.518397615156162006E+00    0.283281541537963154E-03   -0.382249625455221008E+12
    0.466152766906961336E+00    0.254731976925639354E-03   -0.382249625455249146E+12
    0.547645410945798217E+00    0.299264134665975297E-03   -0.382249625455202698E+12
    0.515382380421677944E+00    0.281633825283881048E-03   -0.382249625455178833E+12
    0.322686981635418313E+00    0.176334240765124576E-03   -0.382249625455227539E+12
    0.578209891583593483E+00    0.315966291196518277E-03   -0.382249625455182495E+12
    0.407564303347233203E+00    0.222715984884535592E-03   -0.382249625455179199E+12
    0.134731835959137874E+00    0.736250261272665429E-04   -0.382249625455183472E+12
    0.567343670690807378E+00    0.310028419343746312E-03   -0.382249625455247070E+12
    0.347977868383204991E+00    0.190154595683312514E-03   -0.382249625455240906E+12
    0.200087921050696421E+00    0.109339252204578122E-03   -0.382249625455190186E+12
    0.326115233476829525E+00    0.178207625206182964E-03   -0.382249625455258301E+12
    0.413237475264955856E+00    0.225816136018090015E-03   -0.382249625455201172E+12
    0.340856466462584107E+00    0.186263062873329361E-03   -0.382249625455240723E+12
    0.485580455666748512E+00    0.265348371719268587E-03   -0.382249625455188721E+12
    0.531310884167304653E+00    0.290338038931272876E-03   -0.382249625455191528E+12
    0.121258466084925950E+00    0.662624183613017074E-04   -0.382249625455216797E+12
    0.164168807672029821E+00    0.897110477264463798E-04   -0.382249625455227539E+12
    0.841793578948225873E-01    0.460003159591888526E-04   -0.382249625455231445E+12
    0.522548503582504487E+00    0.285549812644378615E-03   -0.382249625455199219E+12
    0.548894334816888207E+00    0.299946649022407369E-03   -0.382249625455191528E+12
    0.514015737797550054E+00    0.280886994649293370E-03   -0.382249625455209900E+12
    0.136924361860571747E+00    0.748231562964329883E-04   -0.382249625455268921E+12
    0.431481630100215452E+00    0.235785770717171473E-03   -0.382249625455220337E+12
    0.475889538148313473E+00    0.260052737819591647E-03   -0.382249625455202148E+12
    0.934198781180894278E+00    0.510498530254665443E-03   -0.382249625455249207E+12
    0.939135700783410354E+00    0.513196360428300755E-03   -0.382249625455205811E+12
    0.939097799518283649E+00    0.513175671241173042E-03   -0.382249625455182007E+12
    0.700010681365676013E+00    0.382525086777287492E-03   -0.382249625455181580E+12
    0.732250330650482617E+00    0.400142598479270840E-03   -0.382249625455217712E+12
    0.696232142658565589E+00    0.380460260874022796E-03   -0.382249625455185242E+12
    0.699403412582217499E+00    0.382193190308378992E-03   -0.382249625455255188E+12
    0.657766988458923896E+00    0.359440722671187636E-03   -0.382249625455233765E+12
    0.758630073089599177E+00    0.414558015807925699E-03   -0.382249625455187256E+12
    0.758814485038405984E+00    0.414658823904997219E-03   -0.382249625455269958E+12
    0.770986746129555423E+00    0.421310336388376562E-03   -0.382249625455242554E+12
    0.892992984501428388E+00    0.487981368858841436E-03   -0.382249625455267944E+12
    0.890619521272302705E+00    0.486684466468020166E-03   -0.382249625455205933E+12
    0.860610250614002426E+00    0.470285737297684793E-03   -0.382249625455250977E+12
    0.772727489397246226E+00    0.422261634547977369E-03   -0.382249625455187134E+12
    0.711610392263135827E+00    0.388863804253883360E-03   -0.382249625455180603E+12
    0.814061836697841490E+00    0.444849072110237902E-03   -0.382249625455252319E+12
    0.803492704080128739E+00    0.439073418376543102E-03   -0.382249625455226318E+12
    0.799423661323292345E+00    0.436849941566203319E-03   -0.382249625455224487E+12
    0.853828162016509129E+00    0.466579555642066056E-03   -0.382249625455187256E+12
    0.736486317168311144E+00    0.402457403953859728E-03   -0.382249625455180542E+12
    0.722914692708330531E+00    0.395041147276937934E-03   -0.382249625455221436E+12
    0.649814967022991685E+00    0.355095334014076747E-03   -0.382249625455181641E+12
    0.653081640419337583E+00    0.356880384477107552E-03   -0.382249625455239136E+12
    0.780374594828629586E+00    0.426440379353226827E-03   -0.382249625455252747E+12
    0.844175596039691722E+00    0.461304829784665025E-03   -0.382249625455225220E+12
    0.840609457465512744E+00    0.459356161214030906E-03   -0.382249625455204102E+12
    0.917229652621181168E+00    0.501225673186863241E-03   -0.382249625455198730E+12
    0.890102571525652309E+00    0.486401970874894118E-03   -0.382249625455197815E+12
    0.610286690532676257E+00    0.333494852025665938E-03   -0.382249625455182373E+12
    0.854012098250108265E+00    0.466680031787418967E-03   -0.382249625455261963E+12
    0.804135885060876521E+00    0.439424900172768139E-03   -0.382249625455201904E+12
    0.789890962803326824E+00    0.431640721134466656E-03   -0.382249625455189575E+12
    0.791748917409257125E+00    0.432656016442214519E-03   -0.382249625455195984E+12
    0.612140077642612801E+00    0.334507614822052916E-03   -0.382249625455266479E+12
    0.912182362766771337E+00    0.498467580373326380E-03   -0.382249625455178711E+12
    0.884450980200584547E+00    0.483313621469813354E-03   -0.382249625455193848E+12
    0.919732616966066341E+00    0.502593432142923839E-03   -0.382249625455200073E+12
    0.700176244540468451E+00    0.382615550202700452E-03   -0.382249625455178833E+12
    0.849725493326609738E+00    0.464337672674137850E-03   -0.382249625455200989E+12
    0.892913971848100729E+00    0.487938235013441856E-03   -0.382249625455185059E+12
    0.743860115782195574E+00    0.406486872611835828E-03   -0.382249625455179626E+12
    0.831617215326396431E+00    0.454442246182617203E-03   -0.382249625455191162E+12
    0.769331968938967603E+00    0.420406074792008537E-03   -0.382249625455238647E+12
    0.919610897865153598E+00    0.502526945093682452E-03   -0.382249625455178894E+12
    0.848582465611309456E+00    0.463713022577047908E-03   -0.382249625455180542E+12
    0.924259441586713359E+00    0.505067215483784673E-03   -0.382249625455223450E+12
    0.882737853740922174E+00    0.482377478709823768E-03   -0.382249625455201904E+12
    0.776282791983893050E+00    0.424204457046419557E-03   -0.382249625455194458E+12
    0.724270349488658871E+00    0.395781924598529844E-03   -0.382249625455179199E+12
    0.712099650613230661E+00    0.389131194167951003E-03   -0.382249625455204224E+12
    0.630113479519866848E+00    0.344329369300064205E-03   -0.382249625455262695E+12
    0.632049979899048875E+00    0.345387561134281244E-03   -0.382249625455198730E+12
    0.813379039581186736E+00    0.444475883887977081E-03   -0.382249625455192566E+12
    0.686115774678999868E+00    0.374932153666082267E-03   -0.382249625455220947E+12
    0.621840165247808274E+00    0.339808336849496521E-03   -0.382249625455184570E+12
    0.716157592082932060E+00    0.391348631335164019E-03   -0.382249625455202881E+12
    0.649488475017198530E+00    0.354916896611095849E-03   -0.382249625455191528E+12
    0.754827131024520703E+00    0.412479834624543840E-03   -0.382249625455201477E+12
    0.644688066875851673E+00    0.352293664778386307E-03   -0.382249625455242676E+12
    0.743565442430129897E+00    0.406325840740550661E-03   -0.382249625455178772E+12
    0.832275561801766761E+00    0.454802031000208070E-03   -0.382249625455180176E+12
    0.915768779379215303E+00    0.500427443583705261E-03   -0.382249625455228394E+12
    0.709742854748357743E+00    0.387843317026564417E-03   -0.382249625455224182E+12
    0.885013874596890515E+00    0.483621193572823403E-03   -0.382249625455178772E+12
    0.745240895271124915E+00    0.407241443993173633E-03   -0.382249625455240967E+12
    0.871561024162980424E+00    0.476269783790637133E-03   -0.382249625455188721E+12
    0.836578518596308940E+00    0.457153427542316998E-03   -0.382249625455199829E+12
    0.853948620620064602E+00    0.466645412493222700E-03   -0.382249625455184448E+12
    0.901764755561941911E+00    0.492774825805975870E-03   -0.382249625455181702E+12
    0.832495170067733770E+00    0.454922013182981039E-03   -0.382249625455187378E+12
    0.846107134109830739E+00    0.462360410825720649E-03   -0.382249625455225586E+12
    0.851418631763541933E+00    0.465262857229148917E-03   -0.382249625455183899E+12
    0.698628495902730462E+00    0.381769737428590858E-03   -0.382249625455238403E+12
    0.742623791480759854E+00    0.405811230354251307E-03   -0.382249625455240051E+12
    0.811703442317909030E+00    0.443560248659985738E-03   -0.382249625455186768E+12
    0.925516782941056659E+00    0.505754294669978600E-03   -0.382249625455218018E+12
    0.693976380620224154E+00    0.379227601120653247E-03   -0.382249625455179077E+12
    0.626233185329021058E+00    0.342208905217109591E-03   -0.382249625455188538E+12
    0.617604665310948153E+00    0.337493843156507032E-03   -0.382249625455231995E+12
    0.710393679768609121E+00    0.388198938675671722E-03   -0.382249625455181152E+12
    0.113182589696785385E+01    0.618493092510554138E-03   -0.382249625455190735E+12
    0.585221066951925439E+00    0.319797594433606912E-03   -0.382249625455179688E+12
    0.566329334034427423E+00    0.309474078649471550E-03   -0.382249625455198853E+12
    0.631904409413139412E+00    0.345307958574841837E-03   -0.382249625455242126E+12
    0.125666212481773476E+01    0.686710706178476579E-03   -0.382249625455248779E+12
    0.133581033476956090E+01    0.729961700770064806E-03   -0.382249625455206421E+12
    0.124113692021780864E+01    0.678226799461019284E-03   -0.382249625455179810E+12
    0.129040580412420391E+01    0.705149998209702255E-03   -0.382249625455244263E+12
    0.123973055029847279E+01    0.677458264750027163E-03   -0.382249625455179321E+12
    0.122813062418671404E+01    0.671119453609387543E-03   -0.382249625455192749E+12
    0.126948547715866278E+01    0.693718011695568086E-03   -0.382249625455183716E+12
    0.129852683684109138E+01    0.709587918820302308E-03   -0.382249625455223267E+12
    0.125388364711086675E+01    0.685192340406385746E-03   -0.382249625455185974E+12
    0.132934103749208998E+01    0.726426383914715625E-03   -0.382249625455255859E+12
    0.122922884584958636E+01    0.671719571212452972E-03   -0.382249625455184143E+12
    0.122951628758190123E+01    0.671876670759283040E-03   -0.382249625455206421E+12
    0.123179827044766799E+01    0.673123710040050057E-03   -0.382249625455267944E+12
    0.123450594857625240E+01    0.674603199972518218E-03   -0.382249625455221558E+12
    0.128454679609308720E+01    0.701948379360327313E-03   -0.382249625455178833E+12
    0.131878489214282624E+01    0.720658002775892035E-03   -0.382249625455179321E+12
    0.123788728244457280E+01    0.676451011228011473E-03   -0.382249625455179077E+12
    0.126623245737334056E+01    0.691940354172456817E-03   -0.382249625455204834E+12
    0.130897347998038804E+01    0.715296536279278069E-03   -0.382249625455204590E+12
    0.132807999443746905E+01    0.725737323715712392E-03   -0.382249625455194702E+12
    0.128292965184154983E+01    0.701064694124940301E-03   -0.382249625455180542E+12
    0.127437500146661198E+01    0.696389896443174524E-03   -0.382249625455204834E+12
    0.134517470921466020E+01    0.735078870583808180E-03   -0.382249625455178772E+12
    0.139373555204496213E+01    0.761615195406126167E-03   -0.382249625455197876E+12
    0.140593047060849341E+01    0.768279236888251278E-03   -0.382249625455180237E+12
    0.135359025635267471E+01    0.739677681148236880E-03   -0.382249625455257080E+12
    0.136792252833809913E+01    0.747509625742521209E-03   -0.382249625455234497E+12
    0.138023612408977980E+01    0.754238313060128993E-03   -0.382249625455249146E+12
    0.136369228731725523E+01    0.745197889160542572E-03   -0.382249625455185547E+12
    0.141022934551826640E+01    0.770628404254019238E-03   -0.382249625455190063E+12
    0.135072904129817695E+01    0.738114086350099381E-03   -0.382249625455182007E+12
    0.139312818872717781E+01    0.761283265815926964E-03   -0.382249625455238037E+12
    0.138603640246781201E+01    0.757408012084847225E-03   -0.382249625455183472E+12
    0.139037269851437917E+01    0.759777509753097697E-03   -0.382249625455241089E+12
    0.140622830919005670E+01    0.768441929848479597E-03   -0.382249625455205811E+12
    0.140403161846228364E+01    0.767241676589091931E-03   -0.382249625455265137E+12
    0.135545340688316696E+01    0.740695696595802507E-03   -0.382249625455189575E+12
    0.142437357206563364E+01    0.778357554427895441E-03   -0.382249625455181152E+12
    0.135511502322930077E+01    0.740510734628516435E-03   -0.382249625455252930E+12
    0.138516161813723393E+01    0.756929941181633975E-03   -0.382249625455182434E+12
    0.116881137334552809E+01    0.638704083690676055E-03   -0.382249625455189087E+12
    0.117536776407271959E+01    0.642286820429579576E-03   -0.382249625455182861E+12
    0.102851104738533516E+01    0.562036050030881589E-03   -0.382249625455216797E+12
    0.121912303588145599E+01    0.666197112891778274E-03   -0.382249625455224609E+12
    0.111033310028592869E+01    0.606748265380536935E-03   -0.382249625455182373E+12
    0.115152694184296411E+01    0.629258914809762825E-03   -0.382249625455203247E+12
    0.104200127151933097E+01    0.569407933290090899E-03   -0.382249625455190063E+12
    0.114860086784032411E+01    0.627659923803527953E-03   -0.382249625455184692E+12
    0.118748889696400672E+01    0.648910532955504645E-03   -0.382249625455191528E+12
    0.113779599819614097E+01    0.621755534253506004E-03   -0.382249625455183105E+12
    0.102402281248151605E+01    0.559583472359170549E-03   -0.382249625455178833E+12
    0.119603211598556802E+01    0.653579024905651487E-03   -0.382249625455189819E+12
    0.102423686162744332E+01    0.559700408170381932E-03   -0.382249625455198059E+12
    0.116412729141596660E+01    0.636144421912486014E-03   -0.382249625455180115E+12
    0.121003253425539103E+01    0.661229550574277515E-03   -0.382249625455229492E+12
    0.103158542820217325E+01    0.563716153240819686E-03   -0.382249625455218018E+12
    0.964240503441427532E+00    0.526915008103299369E-03   -0.382249625455253174E+12
    0.114160342511719515E+01    0.623836090438532756E-03   -0.382249625455184448E+12
    0.956910467305425172E+00    0.522909558457523176E-03   -0.382249625455206543E+12
    0.107471807565884503E+01    0.587286235024822101E-03   -0.382249625455195068E+12
    0.115520102649117029E+01    0.631266570655445542E-03   -0.382249625455192871E+12
    0.120454623390673254E+01    0.658231664115775075E-03   -0.382249625455259888E+12
    0.119659989127071564E+01    0.653889201013255141E-03   -0.382249625455231445E+12
    0.117310615638497495E+01    0.641050898196285899E-03   -0.382249625455251160E+12
    0.120518193444095401E+01    0.658579027846142992E-03   -0.382249625455224731E+12
    0.103647967148084885E+01    0.566390605117742755E-03   -0.382249625455179993E+12
    0.979997647619266221E+00    0.535525602162488295E-03   -0.382249625455234070E+12
    0.120946649529886274E+01    0.660920230479078918E-03   -0.382249625455237854E+12
    0.121938536148838716E+01    0.666340454618989013E-03   -0.382249625455237671E+12
    0.107396400269964487E+01    0.586874204689507239E-03   -0.382249625455260681E+12
    0.113217979791905754E+01    0.618686495813890506E-03   -0.382249625455182556E+12
    0.988048848201355856E+00    0.539925339088378163E-03   -0.382249625455251831E+12
    0.105167312357023746E+01    0.574693163951146423E-03   -0.382249625455181885E+12
    0.114309952609050836E+01    0.624653701115353895E-03   -0.382249625455201904E+12
    0.115248525285882142E+01    0.629782506881071034E-03   -0.382249625455207642E+12
    0.117022708473917803E+01    0.639477671849385211E-03   -0.382249625455180176E+12
    0.120863726894332624E+01    0.660467150266735555E-03   -0.382249625455179993E+12
    0.103942163955102740E+01    0.567998312806741778E-03   -0.382249625455246216E+12
    0.102198928754433060E+01    0.558472212475670483E-03   -0.382249625455192688E+12
    0.103543016969404311E+01    0.565817135820648924E-03   -0.382249625455218323E+12
    0.961559283861287417E+00    0.525449888767701460E-03   -0.382249625455180420E+12
    0.120721222204477430E+01    0.659688421452595875E-03   -0.382249625455180908E+12
    0.967604259004988254E+00    0.528753231542137322E-03   -0.382249625455188354E+12
    0.103984749668501020E+01    0.568230978465044528E-03   -0.382249625455181885E+12
    0.108793863272319014E+01    0.594510688569959865E-03   -0.382249625455194702E+12
    0.104051961739595855E+01    0.568598202279116437E-03   -0.382249625455222168E+12
    0.112186367965403977E+01    0.613049251306084291E-03   -0.382249625455212769E+12
    0.114742063333576705E+01    0.627014998113214973E-03   -0.382249625455203979E+12
    0.134327605090202340E+01    0.734041275386620464E-03   -0.382249625455223145E+12
    0.136530866673586093E+01    0.746081196926846359E-03   -0.382249625455178833E+12
    0.121055780917165512E+01    0.661516719409449235E-03   -0.382249625455246094E+12
    0.108883558954922299E+01    0.595000809327405483E-03   -0.382249625455179016E+12
    0.148465891221878898E+01    0.811300897876858300E-03   -0.382249625455192993E+12
    0.129255381207466891E+01    0.706323807688267959E-03   -0.382249625455216431E+12
    0.113593294945004342E+01    0.620737514638398089E-03   -0.382249625455259644E+12
    0.137558451405340887E+01    0.751696436373976715E-03   -0.382249625455213989E+12
    0.142892920419590208E+01    0.780847089693768783E-03   -0.382249625455224670E+12
    0.135838211364498540E+01    0.742296105404705400E-03   -0.382249625455190063E+12
    0.972929875792576171E+00    0.531663378380106580E-03   -0.382249625455228516E+12
    0.105901943172944435E+01    0.578707619438507351E-03   -0.382249625455199707E+12
    0.118734599306222610E+01    0.648832354516455483E-03   -0.382249625455228333E+12
    0.147932351351162517E+01    0.808385297836050642E-03   -0.382249625455178711E+12
    0.966391618769574912E+00    0.528090537093729349E-03   -0.382249625455186646E+12
    0.146159112330744723E+01    0.798695388581565236E-03   -0.382249625455216675E+12
    0.149560145270453693E+01    0.817280428996569044E-03   -0.382249625455199646E+12
    0.147583220839912244E+01    0.806477532831629835E-03   -0.382249625455238831E+12
    0.143357232363730724E+01    0.783384239235264878E-03   -0.382249625455198120E+12
    0.147027278443417164E+01    0.803439457309136173E-03   -0.382249625455180908E+12
    0.145410525125190526E+01    0.794604631612171172E-03   -0.382249625455179077E+12
    0.149700360042794856E+01    0.818046656281659016E-03   -0.382249625455188354E+12
    0.148486558063966312E+01    0.811413708285897901E-03   -0.382249625455247803E+12
    0.145383963662600024E+01    0.794459409933078549E-03   -0.382249625455225342E+12
    0.144694688284013218E+01    0.790692812552362266E-03   -0.382249625455240967E+12
    0.144842949050486580E+01    0.791503087236371380E-03   -0.382249625455181030E+12
    0.142776339239677319E+01    0.780209928917596730E-03   -0.382249625455187012E+12
    0.101388182624701595E+01    0.554041843789009167E-03   -0.382249625455190186E+12
    0.114283961970946568E+01    0.624511592810816614E-03   -0.382249625455207275E+12
    0.126203899791463936E+01    0.689648870554445434E-03   -0.382249625455180908E+12
    0.128523741567334571E+01    0.702325724157110099E-03   -0.382249625455209595E+12
    0.991660925327801479E+00    0.541899136724179054E-03   -0.382249625455183533E+12
    0.119908148386098001E+01    0.655245368950023899E-03   -0.382249625455188599E+12
    0.137812028930045427E+01    0.753082188658051824E-03   -0.382249625455179077E+12
    0.102086496228184798E+01    0.557857826860444083E-03   -0.382249625455185059E+12
    0.118689484542277479E+01    0.648585901233049260E-03   -0.382249625455185120E+12
    0.955613169130053342E+00    0.522200608250940183E-03   -0.382249625455178711E+12
    0.134696372332935321E+01    0.736056418868892386E-03   -0.382249625455234131E+12
    0.120181213814761612E+01    0.656737595803450749E-03   -0.382249625455249634E+12
    0.113694453893136793E+01    0.621290235922273399E-03   -0.382249625455178955E+12
    0.944533923835945144E+00    0.516146306341970984E-03   -0.382249625455188171E+12
    0.954719694798641716E+00    0.521712384833007714E-03   -0.382249625455190125E+12
    0.140020051441793503E+01    0.765148037397128363E-03   -0.382249625455182251E+12
    0.115238972287869079E+01    0.629730423360517762E-03   -0.382249625455269165E+12
    0.127904725352332638E+01    0.698943127736891207E-03   -0.382249625455179138E+12
    0.130463400747300518E+01    0.712925171217513903E-03   -0.382249625455180603E+12
    0.121942211660856925E+01    0.666360563727832599E-03   -0.382249625455202148E+12
    0.140289964065437411E+01    0.766622997382150292E-03   -0.382249625455180359E+12
    0.112642451666524424E+01    0.615541488261831405E-03   -0.382249625455182190E+12
    0.144159404311647754E+01    0.787767755191947044E-03   -0.382249625455198975E+12
    0.146751433305291723E+01    0.801932037459090184E-03   -0.382249625455216064E+12
    0.116694219612196814E+01    0.637682639754379122E-03   -0.382249625455179199E+12
    0.126314856652727858E+01    0.690255167888739122E-03   -0.382249625455184204E+12
    0.144040457600524996E+01    0.787117880139986113E-03   -0.382249625455229370E+12
    0.105929974229131996E+01    0.578860784294649676E-03   -0.382249625455187073E+12
    0.144013394371594017E+01    0.786969934287247495E-03   -0.382249625455180725E+12
    0.146181461654631439E+01    0.798817453242748731E-03   -0.382249625455178833E+12
    0.126692060071045431E+01    0.692316444992161287E-03   -0.382249625455179138E+12
    0.115955729636938942E+01    0.633647168638570651E-03   -0.382249625455229736E+12
    0.141729946812757346E+01    0.774491861131044058E-03   -0.382249625455183472E+12
    0.112886536721678454E+01    0.616875385930833208E-03   -0.382249625455248413E+12
    0.124251177743671715E+01    0.678978040874053386E-03   -0.382249625455210815E+12
    0.138301530900899028E+01    0.755757087499802672E-03   -0.382249625455179565E+12
    0.140359708819770912E+01    0.767004192628773234E-03   -0.382249625455214722E+12
    0.129394038101960596E+01    0.707081568045404363E-03   -0.382249625455179199E+12
    0.140468834557995859E+01    0.767600504186514705E-03   -0.382249625455200806E+12
    0.145726430060861811E+01    0.796330857201492013E-03   -0.382249625455203247E+12
    0.131491842506077528E+01    0.718545161562357472E-03   -0.382249625455183716E+12
    0.142748521505389014E+01    0.780057928333695197E-03   -0.382249625455181824E+12
    0.138771910654349440E+01    0.758327466737757213E-03   -0.382249625455203491E+12
    0.126829777246838615E+01    0.693069082031218990E-03   -0.382249625455258667E+12
    0.117737797064025984E+01    0.643385262305119906E-03   -0.382249625455240112E+12
    0.127764919591623127E+01    0.698179201269906609E-03   -0.382249625455218628E+12
    0.126288395114055341E+01    0.690110548407325483E-03   -0.382249625455198669E+12
    0.143309352886754993E+01    0.783122699280992948E-03   -0.382249625455210815E+12
    0.125371441916244653E+01    0.685099796299916300E-03   -0.382249625455205322E+12
    0.107297013286500520E+01    0.586330960140324917E-03   -0.382249625455268372E+12
    0.113979508475319191E+01    0.622847874629228250E-03   -0.382249625455228760E+12
    0.131323283223923171E+01    0.717624075665657698E-03   -0.382249625455195007E+12
    0.144715436805296171E+01    0.790806351366949226E-03   -0.382249625455238403E+12
    0.132826868395810815E+01    0.725840467359665240E-03   -0.382249625455178955E+12
    0.117779498295770590E+01    0.643613185585023497E-03   -0.382249625455184570E+12
    0.972262881650147737E+00    0.531298891952399128E-03   -0.382249625455235962E+12
    0.127586989493094038E+01    0.697206843870346450E-03   -0.382249625455179688E+12
    0.973497534489997651E+00    0.531973626957255464E-03   -0.382249625455178711E+12
    0.112163805195647370E+01    0.612925852532513718E-03   -0.382249625455233215E+12
    0.130927454454983816E+01    0.715460957692240300E-03   -0.382249625455209900E+12
    0.972388055753717007E+00    0.531367330274746283E-03   -0.382249625455183716E+12
    0.119847872831245317E+01    0.654916012944166317E-03   -0.382249625455214111E+12
    0.132251878456390548E+01    0.722698439019621246E-03   -0.382249625455193481E+12
    0.132434792717653393E+01    0.723697961847343451E-03   -0.382249625455180420E+12
    0.105229814814095435E+01    0.575034643577725709E-03   -0.382249625455237122E+12
    0.114812267116652000E+01    0.627398586821523922E-03   -0.382249625455179016E+12
    0.149846026799523391E+01    0.818842656312878682E-03   -0.382249625455191406E+12
    0.100642896303446161E+01    0.549969210501899852E-03   -0.382249625455179260E+12
    0.123366706148940919E+01    0.674144761818025332E-03   -0.382249625455264282E+12
    0.131078416341006898E+01    0.716285983287955497E-03   -0.382249625455192932E+12
    0.126186563888076320E+01    0.689554192536322597E-03   -0.382249625455238342E+12
    0.965582358310067002E+00    0.527648394402345446E-03   -0.382249625455268555E+12
    0.102090863692034173E+01    0.557881697852011184E-03   -0.382249625455182129E+12
    0.116265872059073083E+01    0.635341880289536890E-03   -0.382249625455186707E+12
    0.138799686063026639E+01    0.758479370144694138E-03   -0.382249625455238892E+12
    0.135420526427904697E+01    0.740013674167658091E-03   -0.382249625455178833E+12
    0.121250489980490261E+01    0.662580627302872694E-03   -0.382249625455185791E+12
    0.119089070594750357E+01    0.650769430330811285E-03   -0.382249625455180908E+12
    0.130625531527032557E+01    0.713811185985076041E-03   -0.382249625455213501E+12
    0.128717263682600525E+01    0.703383249744391533E-03   -0.382249625455196167E+12
    0.117160841366243940E+01    0.640232594428791798E-03   -0.382249625455268677E+12
    0.113981121341138203E+01    0.622856743027749545E-03   -0.382249625455178772E+12
    0.147653602937564443E+01    0.806862135048829854E-03   -0.382249625455231506E+12
    0.108426427808104231E+01    0.592502820394002908E-03   -0.382249625455200806E+12
    0.138887668512195694E+01    0.758960136896989985E-03   -0.382249625455212646E+12
    0.137604424975918893E+01    0.751947658402820750E-03   -0.382249625455218140E+12
    0.149641442038568995E+01    0.817724760716724672E-03   -0.382249625455188843E+12
    0.132837556282316505E+01    0.725898921851430255E-03   -0.382249625455203613E+12
    0.130019695108347766E+01    0.710500434850774181E-03   -0.382249625455234741E+12
    0.124412827236057444E+01    0.679861361375901237E-03   -0.382249625455247742E+12
    0.109556034159284277E+01    0.598675582591851291E-03   -0.382249625455179199E+12
    0.146832645074791723E+01    0.802375856370803292E-03   -0.382249625455187378E+12
    0.146317606974431635E+01    0.799561428372759205E-03   -0.382249625455178833E+12
    0.149191477850829601E+01    0.815265955533944200E-03   -0.382249625455244873E+12
    0.139160986770541872E+01    0.760453601145194081E-03   -0.382249625455199036E+12
    0.133405096362986431E+01    0.729000267676260544E-03   -0.382249625455192871E+12
    0.119825593907437788E+01    0.654794251941146974E-03   -0.382249625455194580E+12
    0.116128867876014907E+01    0.634593273945799558E-03   -0.382249625455201416E+12
    0.126191208262258048E+01    0.689579436807426769E-03   -0.382249625455237671E+12
    0.115196895846900738E+01    0.629500365904805547E-03   -0.382249625455220581E+12
    0.124770722857260186E+01    0.681817176890480272E-03   -0.382249625455178711E+12
    0.132048730097297740E+01    0.721588251319698671E-03   -0.382249625455194031E+12
    0.131998187803985356E+01    0.721312058931156933E-03   -0.382249625455194824E+12
    0.126659739700221019E+01    0.692139863464363847E-03   -0.382249625455200195E+12
    0.129849517712745977E+01    0.709570605173124040E-03   -0.382249625455206177E+12
    0.127338306063752049E+01    0.695847811188065051E-03   -0.382249625455257080E+12
    0.971025828036207850E+00    0.530622980543377304E-03   -0.382249625455202271E+12
    0.940506634419439269E+00    0.513945501561486814E-03   -0.382249625455232300E+12
    0.139587953938169562E+01    0.762786764423123214E-03   -0.382249625455228271E+12
    0.137036004260711275E+01    0.748841548001460381E-03   -0.382249625455178772E+12
    0.126884784957231700E+01    0.693369541932878234E-03   -0.382249625455216309E+12
